digraph Tree {
node [shape=box, style="filled, rounded", color="black", fontname="helvetica"] ;
edge [fontname="helvetica"] ;
0 [label=<alcohol &le; 10.525<br/>gini = 0.5<br/>samples = 1242<br/>value = [621, 621]<br/>class = bad>, fillcolor="#ffffff"] ;
1 [label=<sulphates &le; 0.625<br/>gini = 0.451<br/>samples = 769<br/>value = [505, 264]<br/>class = bad>, fillcolor="#f3c3a1"] ;
0 -> 1 [labeldistance=2.5, labelangle=45, headlabel="True"] ;
2 [label=<sulphates &le; 0.525<br/>gini = 0.362<br/>samples = 477<br/>value = [364, 113]<br/>class = bad>, fillcolor="#eda876"] ;
1 -> 2 ;
3 [label=<alcohol &le; 9.65<br/>gini = 0.186<br/>samples = 154<br/>value = [138, 16]<br/>class = bad>, fillcolor="#e89050"] ;
2 -> 3 ;
4 [label=<alcohol &le; 9.15<br/>gini = 0.064<br/>samples = 90<br/>value = [87, 3]<br/>class = bad>, fillcolor="#e68540"] ;
3 -> 4 ;
5 [label=<citric acid &le; 0.315<br/>gini = 0.408<br/>samples = 7<br/>value = [5, 2]<br/>class = bad>, fillcolor="#efb388"] ;
4 -> 5 ;
6 [label=<gini = 0.0<br/>samples = 5<br/>value = [5, 0]<br/>class = bad>, fillcolor="#e58139"] ;
5 -> 6 ;
7 [label=<gini = 0.0<br/>samples = 2<br/>value = [0, 2]<br/>class = good>, fillcolor="#399de5"] ;
5 -> 7 ;
8 [label=<residual sugar &le; 4.75<br/>gini = 0.024<br/>samples = 83<br/>value = [82, 1]<br/>class = bad>, fillcolor="#e5833b"] ;
4 -> 8 ;
9 [label=<gini = 0.0<br/>samples = 78<br/>value = [78, 0]<br/>class = bad>, fillcolor="#e58139"] ;
8 -> 9 ;
10 [label=<free sulfur dioxide &le; 27.0<br/>gini = 0.32<br/>samples = 5<br/>value = [4, 1]<br/>class = bad>, fillcolor="#eca06a"] ;
8 -> 10 ;
11 [label=<gini = 0.0<br/>samples = 1<br/>value = [0, 1]<br/>class = good>, fillcolor="#399de5"] ;
10 -> 11 ;
12 [label=<gini = 0.0<br/>samples = 4<br/>value = [4, 0]<br/>class = bad>, fillcolor="#e58139"] ;
10 -> 12 ;
13 [label=<pH &le; 3.225<br/>gini = 0.324<br/>samples = 64<br/>value = [51, 13]<br/>class = bad>, fillcolor="#eca16b"] ;
3 -> 13 ;
14 [label=<volatile acidity &le; 0.49<br/>gini = 0.49<br/>samples = 21<br/>value = [12, 9]<br/>class = bad>, fillcolor="#f8e0ce"] ;
13 -> 14 ;
15 [label=<gini = 0.0<br/>samples = 4<br/>value = [0, 4]<br/>class = good>, fillcolor="#399de5"] ;
14 -> 15 ;
16 [label=<density &le; 0.996<br/>gini = 0.415<br/>samples = 17<br/>value = [12, 5]<br/>class = bad>, fillcolor="#f0b58b"] ;
14 -> 16 ;
17 [label=<chlorides &le; 0.094<br/>gini = 0.165<br/>samples = 11<br/>value = [10, 1]<br/>class = bad>, fillcolor="#e88e4d"] ;
16 -> 17 ;
18 [label=<gini = 0.0<br/>samples = 10<br/>value = [10, 0]<br/>class = bad>, fillcolor="#e58139"] ;
17 -> 18 ;
19 [label=<gini = 0.0<br/>samples = 1<br/>value = [0, 1]<br/>class = good>, fillcolor="#399de5"] ;
17 -> 19 ;
20 [label=<citric acid &le; 0.365<br/>gini = 0.444<br/>samples = 6<br/>value = [2, 4]<br/>class = good>, fillcolor="#9ccef2"] ;
16 -> 20 ;
21 [label=<gini = 0.0<br/>samples = 4<br/>value = [0, 4]<br/>class = good>, fillcolor="#399de5"] ;
20 -> 21 ;
22 [label=<gini = 0.0<br/>samples = 2<br/>value = [2, 0]<br/>class = bad>, fillcolor="#e58139"] ;
20 -> 22 ;
23 [label=<residual sugar &le; 1.3<br/>gini = 0.169<br/>samples = 43<br/>value = [39, 4]<br/>class = bad>, fillcolor="#e88e4d"] ;
13 -> 23 ;
24 [label=<gini = 0.0<br/>samples = 1<br/>value = [0, 1]<br/>class = good>, fillcolor="#399de5"] ;
23 -> 24 ;
25 [label=<volatile acidity &le; 0.47<br/>gini = 0.133<br/>samples = 42<br/>value = [39, 3]<br/>class = bad>, fillcolor="#e78b48"] ;
23 -> 25 ;
26 [label=<alcohol &le; 10.0<br/>gini = 0.408<br/>samples = 7<br/>value = [5, 2]<br/>class = bad>, fillcolor="#efb388"] ;
25 -> 26 ;
27 [label=<gini = 0.0<br/>samples = 2<br/>value = [0, 2]<br/>class = good>, fillcolor="#399de5"] ;
26 -> 27 ;
28 [label=<gini = 0.0<br/>samples = 5<br/>value = [5, 0]<br/>class = bad>, fillcolor="#e58139"] ;
26 -> 28 ;
29 [label=<citric acid &le; 0.3<br/>gini = 0.056<br/>samples = 35<br/>value = [34, 1]<br/>class = bad>, fillcolor="#e6853f"] ;
25 -> 29 ;
30 [label=<gini = 0.0<br/>samples = 34<br/>value = [34, 0]<br/>class = bad>, fillcolor="#e58139"] ;
29 -> 30 ;
31 [label=<gini = 0.0<br/>samples = 1<br/>value = [0, 1]<br/>class = good>, fillcolor="#399de5"] ;
29 -> 31 ;
32 [label=<total sulfur dioxide &le; 95.0<br/>gini = 0.42<br/>samples = 323<br/>value = [226, 97]<br/>class = bad>, fillcolor="#f0b78e"] ;
2 -> 32 ;
33 [label=<alcohol &le; 9.75<br/>gini = 0.451<br/>samples = 280<br/>value = [184, 96]<br/>class = bad>, fillcolor="#f3c3a0"] ;
32 -> 33 ;
34 [label=<chlorides &le; 0.184<br/>gini = 0.383<br/>samples = 159<br/>value = [118, 41]<br/>class = bad>, fillcolor="#eead7e"] ;
33 -> 34 ;
35 [label=<sulphates &le; 0.585<br/>gini = 0.363<br/>samples = 155<br/>value = [118, 37]<br/>class = bad>, fillcolor="#eda977"] ;
34 -> 35 ;
36 [label=<pH &le; 3.545<br/>gini = 0.28<br/>samples = 101<br/>value = [84, 17]<br/>class = bad>, fillcolor="#ea9a61"] ;
35 -> 36 ;
37 [label=<density &le; 0.997<br/>gini = 0.245<br/>samples = 98<br/>value = [84, 14]<br/>class = bad>, fillcolor="#e9965a"] ;
36 -> 37 ;
38 [label=<density &le; 0.997<br/>gini = 0.393<br/>samples = 41<br/>value = [30, 11]<br/>class = bad>, fillcolor="#efaf82"] ;
37 -> 38 ;
39 [label=<citric acid &le; 0.3<br/>gini = 0.231<br/>samples = 30<br/>value = [26, 4]<br/>class = bad>, fillcolor="#e99457"] ;
38 -> 39 ;
40 [label=<citric acid &le; 0.02<br/>gini = 0.071<br/>samples = 27<br/>value = [26, 1]<br/>class = bad>, fillcolor="#e68641"] ;
39 -> 40 ;
41 [label=<residual sugar &le; 2.0<br/>gini = 0.278<br/>samples = 6<br/>value = [5, 1]<br/>class = bad>, fillcolor="#ea9a61"] ;
40 -> 41 ;
42 [label=<gini = 0.0<br/>samples = 5<br/>value = [5, 0]<br/>class = bad>, fillcolor="#e58139"] ;
41 -> 42 ;
43 [label=<gini = 0.0<br/>samples = 1<br/>value = [0, 1]<br/>class = good>, fillcolor="#399de5"] ;
41 -> 43 ;
44 [label=<gini = 0.0<br/>samples = 21<br/>value = [21, 0]<br/>class = bad>, fillcolor="#e58139"] ;
40 -> 44 ;
45 [label=<gini = 0.0<br/>samples = 3<br/>value = [0, 3]<br/>class = good>, fillcolor="#399de5"] ;
39 -> 45 ;
46 [label=<alcohol &le; 9.55<br/>gini = 0.463<br/>samples = 11<br/>value = [4, 7]<br/>class = good>, fillcolor="#aad5f4"] ;
38 -> 46 ;
47 [label=<volatile acidity &le; 0.54<br/>gini = 0.346<br/>samples = 9<br/>value = [2, 7]<br/>class = good>, fillcolor="#72b9ec"] ;
46 -> 47 ;
48 [label=<gini = 0.0<br/>samples = 2<br/>value = [2, 0]<br/>class = bad>, fillcolor="#e58139"] ;
47 -> 48 ;
49 [label=<gini = 0.0<br/>samples = 7<br/>value = [0, 7]<br/>class = good>, fillcolor="#399de5"] ;
47 -> 49 ;
50 [label=<gini = 0.0<br/>samples = 2<br/>value = [2, 0]<br/>class = bad>, fillcolor="#e58139"] ;
46 -> 50 ;
51 [label=<density &le; 0.999<br/>gini = 0.1<br/>samples = 57<br/>value = [54, 3]<br/>class = bad>, fillcolor="#e68844"] ;
37 -> 51 ;
52 [label=<gini = 0.0<br/>samples = 41<br/>value = [41, 0]<br/>class = bad>, fillcolor="#e58139"] ;
51 -> 52 ;
53 [label=<citric acid &le; 0.13<br/>gini = 0.305<br/>samples = 16<br/>value = [13, 3]<br/>class = bad>, fillcolor="#eb9e67"] ;
51 -> 53 ;
54 [label=<gini = 0.0<br/>samples = 3<br/>value = [0, 3]<br/>class = good>, fillcolor="#399de5"] ;
53 -> 54 ;
55 [label=<gini = 0.0<br/>samples = 13<br/>value = [13, 0]<br/>class = bad>, fillcolor="#e58139"] ;
53 -> 55 ;
56 [label=<gini = 0.0<br/>samples = 3<br/>value = [0, 3]<br/>class = good>, fillcolor="#399de5"] ;
36 -> 56 ;
57 [label=<volatile acidity &le; 0.44<br/>gini = 0.466<br/>samples = 54<br/>value = [34, 20]<br/>class = bad>, fillcolor="#f4cbad"] ;
35 -> 57 ;
58 [label=<free sulfur dioxide &le; 5.5<br/>gini = 0.355<br/>samples = 13<br/>value = [3, 10]<br/>class = good>, fillcolor="#74baed"] ;
57 -> 58 ;
59 [label=<gini = 0.0<br/>samples = 2<br/>value = [2, 0]<br/>class = bad>, fillcolor="#e58139"] ;
58 -> 59 ;
60 [label=<free sulfur dioxide &le; 31.5<br/>gini = 0.165<br/>samples = 11<br/>value = [1, 10]<br/>class = good>, fillcolor="#4da7e8"] ;
58 -> 60 ;
61 [label=<gini = 0.0<br/>samples = 10<br/>value = [0, 10]<br/>class = good>, fillcolor="#399de5"] ;
60 -> 61 ;
62 [label=<gini = 0.0<br/>samples = 1<br/>value = [1, 0]<br/>class = bad>, fillcolor="#e58139"] ;
60 -> 62 ;
63 [label=<alcohol &le; 9.15<br/>gini = 0.369<br/>samples = 41<br/>value = [31, 10]<br/>class = bad>, fillcolor="#edaa79"] ;
57 -> 63 ;
64 [label=<citric acid &le; 0.09<br/>gini = 0.32<br/>samples = 5<br/>value = [1, 4]<br/>class = good>, fillcolor="#6ab6ec"] ;
63 -> 64 ;
65 [label=<gini = 0.0<br/>samples = 1<br/>value = [1, 0]<br/>class = bad>, fillcolor="#e58139"] ;
64 -> 65 ;
66 [label=<gini = 0.0<br/>samples = 4<br/>value = [0, 4]<br/>class = good>, fillcolor="#399de5"] ;
64 -> 66 ;
67 [label=<chlorides &le; 0.113<br/>gini = 0.278<br/>samples = 36<br/>value = [30, 6]<br/>class = bad>, fillcolor="#ea9a61"] ;
63 -> 67 ;
68 [label=<residual sugar &le; 2.45<br/>gini = 0.208<br/>samples = 34<br/>value = [30, 4]<br/>class = bad>, fillcolor="#e89253"] ;
67 -> 68 ;
69 [label=<alcohol &le; 9.6<br/>gini = 0.074<br/>samples = 26<br/>value = [25, 1]<br/>class = bad>, fillcolor="#e68641"] ;
68 -> 69 ;
70 [label=<gini = 0.0<br/>samples = 23<br/>value = [23, 0]<br/>class = bad>, fillcolor="#e58139"] ;
69 -> 70 ;
71 [label=<residual sugar &le; 2.05<br/>gini = 0.444<br/>samples = 3<br/>value = [2, 1]<br/>class = bad>, fillcolor="#f2c09c"] ;
69 -> 71 ;
72 [label=<gini = 0.0<br/>samples = 2<br/>value = [2, 0]<br/>class = bad>, fillcolor="#e58139"] ;
71 -> 72 ;
73 [label=<gini = 0.0<br/>samples = 1<br/>value = [0, 1]<br/>class = good>, fillcolor="#399de5"] ;
71 -> 73 ;
74 [label=<density &le; 0.998<br/>gini = 0.469<br/>samples = 8<br/>value = [5, 3]<br/>class = bad>, fillcolor="#f5cdb0"] ;
68 -> 74 ;
75 [label=<gini = 0.0<br/>samples = 3<br/>value = [0, 3]<br/>class = good>, fillcolor="#399de5"] ;
74 -> 75 ;
76 [label=<gini = 0.0<br/>samples = 5<br/>value = [5, 0]<br/>class = bad>, fillcolor="#e58139"] ;
74 -> 76 ;
77 [label=<gini = 0.0<br/>samples = 2<br/>value = [0, 2]<br/>class = good>, fillcolor="#399de5"] ;
67 -> 77 ;
78 [label=<gini = 0.0<br/>samples = 4<br/>value = [0, 4]<br/>class = good>, fillcolor="#399de5"] ;
34 -> 78 ;
79 [label=<pH &le; 3.425<br/>gini = 0.496<br/>samples = 121<br/>value = [66, 55]<br/>class = bad>, fillcolor="#fbeade"] ;
33 -> 79 ;
80 [label=<fixed acidity &le; 8.85<br/>gini = 0.5<br/>samples = 100<br/>value = [49, 51]<br/>class = good>, fillcolor="#f7fbfe"] ;
79 -> 80 ;
81 [label=<chlorides &le; 0.082<br/>gini = 0.481<br/>samples = 72<br/>value = [29, 43]<br/>class = good>, fillcolor="#bfdff7"] ;
80 -> 81 ;
82 [label=<density &le; 0.995<br/>gini = 0.491<br/>samples = 44<br/>value = [25, 19]<br/>class = bad>, fillcolor="#f9e1cf"] ;
81 -> 82 ;
83 [label=<gini = 0.0<br/>samples = 4<br/>value = [0, 4]<br/>class = good>, fillcolor="#399de5"] ;
82 -> 83 ;
84 [label=<density &le; 0.996<br/>gini = 0.469<br/>samples = 40<br/>value = [25, 15]<br/>class = bad>, fillcolor="#f5cdb0"] ;
82 -> 84 ;
85 [label=<gini = 0.0<br/>samples = 9<br/>value = [9, 0]<br/>class = bad>, fillcolor="#e58139"] ;
84 -> 85 ;
86 [label=<alcohol &le; 9.85<br/>gini = 0.499<br/>samples = 31<br/>value = [16, 15]<br/>class = bad>, fillcolor="#fdf7f3"] ;
84 -> 86 ;
87 [label=<gini = 0.0<br/>samples = 6<br/>value = [6, 0]<br/>class = bad>, fillcolor="#e58139"] ;
86 -> 87 ;
88 [label=<volatile acidity &le; 0.585<br/>gini = 0.48<br/>samples = 25<br/>value = [10, 15]<br/>class = good>, fillcolor="#bddef6"] ;
86 -> 88 ;
89 [label=<fixed acidity &le; 7.15<br/>gini = 0.5<br/>samples = 20<br/>value = [10, 10]<br/>class = bad>, fillcolor="#ffffff"] ;
88 -> 89 ;
90 [label=<pH &le; 3.415<br/>gini = 0.278<br/>samples = 6<br/>value = [5, 1]<br/>class = bad>, fillcolor="#ea9a61"] ;
89 -> 90 ;
91 [label=<gini = 0.0<br/>samples = 5<br/>value = [5, 0]<br/>class = bad>, fillcolor="#e58139"] ;
90 -> 91 ;
92 [label=<gini = 0.0<br/>samples = 1<br/>value = [0, 1]<br/>class = good>, fillcolor="#399de5"] ;
90 -> 92 ;
93 [label=<fixed acidity &le; 7.9<br/>gini = 0.459<br/>samples = 14<br/>value = [5, 9]<br/>class = good>, fillcolor="#a7d3f3"] ;
89 -> 93 ;
94 [label=<pH &le; 3.215<br/>gini = 0.219<br/>samples = 8<br/>value = [1, 7]<br/>class = good>, fillcolor="#55abe9"] ;
93 -> 94 ;
95 [label=<gini = 0.0<br/>samples = 1<br/>value = [1, 0]<br/>class = bad>, fillcolor="#e58139"] ;
94 -> 95 ;
96 [label=<gini = 0.0<br/>samples = 7<br/>value = [0, 7]<br/>class = good>, fillcolor="#399de5"] ;
94 -> 96 ;
97 [label=<alcohol &le; 10.25<br/>gini = 0.444<br/>samples = 6<br/>value = [4, 2]<br/>class = bad>, fillcolor="#f2c09c"] ;
93 -> 97 ;
98 [label=<citric acid &le; 0.135<br/>gini = 0.444<br/>samples = 3<br/>value = [1, 2]<br/>class = good>, fillcolor="#9ccef2"] ;
97 -> 98 ;
99 [label=<gini = 0.0<br/>samples = 1<br/>value = [1, 0]<br/>class = bad>, fillcolor="#e58139"] ;
98 -> 99 ;
100 [label=<gini = 0.0<br/>samples = 2<br/>value = [0, 2]<br/>class = good>, fillcolor="#399de5"] ;
98 -> 100 ;
101 [label=<gini = 0.0<br/>samples = 3<br/>value = [3, 0]<br/>class = bad>, fillcolor="#e58139"] ;
97 -> 101 ;
102 [label=<gini = 0.0<br/>samples = 5<br/>value = [0, 5]<br/>class = good>, fillcolor="#399de5"] ;
88 -> 102 ;
103 [label=<pH &le; 3.175<br/>gini = 0.245<br/>samples = 28<br/>value = [4, 24]<br/>class = good>, fillcolor="#5aade9"] ;
81 -> 103 ;
104 [label=<gini = 0.0<br/>samples = 2<br/>value = [2, 0]<br/>class = bad>, fillcolor="#e58139"] ;
103 -> 104 ;
105 [label=<fixed acidity &le; 6.8<br/>gini = 0.142<br/>samples = 26<br/>value = [2, 24]<br/>class = good>, fillcolor="#49a5e7"] ;
103 -> 105 ;
106 [label=<gini = 0.0<br/>samples = 1<br/>value = [1, 0]<br/>class = bad>, fillcolor="#e58139"] ;
105 -> 106 ;
107 [label=<volatile acidity &le; 0.84<br/>gini = 0.077<br/>samples = 25<br/>value = [1, 24]<br/>class = good>, fillcolor="#41a1e6"] ;
105 -> 107 ;
108 [label=<gini = 0.0<br/>samples = 23<br/>value = [0, 23]<br/>class = good>, fillcolor="#399de5"] ;
107 -> 108 ;
109 [label=<sulphates &le; 0.545<br/>gini = 0.5<br/>samples = 2<br/>value = [1, 1]<br/>class = bad>, fillcolor="#ffffff"] ;
107 -> 109 ;
110 [label=<gini = 0.0<br/>samples = 1<br/>value = [1, 0]<br/>class = bad>, fillcolor="#e58139"] ;
109 -> 110 ;
111 [label=<gini = 0.0<br/>samples = 1<br/>value = [0, 1]<br/>class = good>, fillcolor="#399de5"] ;
109 -> 111 ;
112 [label=<fixed acidity &le; 12.05<br/>gini = 0.408<br/>samples = 28<br/>value = [20, 8]<br/>class = bad>, fillcolor="#efb388"] ;
80 -> 112 ;
113 [label=<citric acid &le; 0.315<br/>gini = 0.355<br/>samples = 26<br/>value = [20, 6]<br/>class = bad>, fillcolor="#eda774"] ;
112 -> 113 ;
114 [label=<volatile acidity &le; 0.61<br/>gini = 0.5<br/>samples = 8<br/>value = [4, 4]<br/>class = bad>, fillcolor="#ffffff"] ;
113 -> 114 ;
115 [label=<gini = 0.0<br/>samples = 4<br/>value = [0, 4]<br/>class = good>, fillcolor="#399de5"] ;
114 -> 115 ;
116 [label=<gini = 0.0<br/>samples = 4<br/>value = [4, 0]<br/>class = bad>, fillcolor="#e58139"] ;
114 -> 116 ;
117 [label=<chlorides &le; 0.078<br/>gini = 0.198<br/>samples = 18<br/>value = [16, 2]<br/>class = bad>, fillcolor="#e89152"] ;
113 -> 117 ;
118 [label=<free sulfur dioxide &le; 13.5<br/>gini = 0.5<br/>samples = 4<br/>value = [2, 2]<br/>class = bad>, fillcolor="#ffffff"] ;
117 -> 118 ;
119 [label=<gini = 0.0<br/>samples = 2<br/>value = [2, 0]<br/>class = bad>, fillcolor="#e58139"] ;
118 -> 119 ;
120 [label=<gini = 0.0<br/>samples = 2<br/>value = [0, 2]<br/>class = good>, fillcolor="#399de5"] ;
118 -> 120 ;
121 [label=<gini = 0.0<br/>samples = 14<br/>value = [14, 0]<br/>class = bad>, fillcolor="#e58139"] ;
117 -> 121 ;
122 [label=<gini = 0.0<br/>samples = 2<br/>value = [0, 2]<br/>class = good>, fillcolor="#399de5"] ;
112 -> 122 ;
123 [label=<citric acid &le; 0.245<br/>gini = 0.308<br/>samples = 21<br/>value = [17, 4]<br/>class = bad>, fillcolor="#eb9f68"] ;
79 -> 123 ;
124 [label=<volatile acidity &le; 0.625<br/>gini = 0.198<br/>samples = 18<br/>value = [16, 2]<br/>class = bad>, fillcolor="#e89152"] ;
123 -> 124 ;
125 [label=<gini = 0.0<br/>samples = 9<br/>value = [9, 0]<br/>class = bad>, fillcolor="#e58139"] ;
124 -> 125 ;
126 [label=<volatile acidity &le; 0.665<br/>gini = 0.346<br/>samples = 9<br/>value = [7, 2]<br/>class = bad>, fillcolor="#eca572"] ;
124 -> 126 ;
127 [label=<gini = 0.0<br/>samples = 2<br/>value = [0, 2]<br/>class = good>, fillcolor="#399de5"] ;
126 -> 127 ;
128 [label=<gini = 0.0<br/>samples = 7<br/>value = [7, 0]<br/>class = bad>, fillcolor="#e58139"] ;
126 -> 128 ;
129 [label=<sulphates &le; 0.6<br/>gini = 0.444<br/>samples = 3<br/>value = [1, 2]<br/>class = good>, fillcolor="#9ccef2"] ;
123 -> 129 ;
130 [label=<gini = 0.0<br/>samples = 1<br/>value = [1, 0]<br/>class = bad>, fillcolor="#e58139"] ;
129 -> 130 ;
131 [label=<gini = 0.0<br/>samples = 2<br/>value = [0, 2]<br/>class = good>, fillcolor="#399de5"] ;
129 -> 131 ;
132 [label=<chlorides &le; 0.072<br/>gini = 0.045<br/>samples = 43<br/>value = [42, 1]<br/>class = bad>, fillcolor="#e6843e"] ;
32 -> 132 ;
133 [label=<gini = 0.0<br/>samples = 1<br/>value = [0, 1]<br/>class = good>, fillcolor="#399de5"] ;
132 -> 133 ;
134 [label=<gini = 0.0<br/>samples = 42<br/>value = [42, 0]<br/>class = bad>, fillcolor="#e58139"] ;
132 -> 134 ;
135 [label=<volatile acidity &le; 0.565<br/>gini = 0.499<br/>samples = 292<br/>value = [141, 151]<br/>class = good>, fillcolor="#f2f9fd"] ;
1 -> 135 ;
136 [label=<alcohol &le; 9.65<br/>gini = 0.461<br/>samples = 186<br/>value = [67, 119]<br/>class = good>, fillcolor="#a8d4f4"] ;
135 -> 136 ;
137 [label=<citric acid &le; 0.255<br/>gini = 0.497<br/>samples = 84<br/>value = [45, 39]<br/>class = bad>, fillcolor="#fceee5"] ;
136 -> 137 ;
138 [label=<density &le; 0.997<br/>gini = 0.384<br/>samples = 27<br/>value = [7, 20]<br/>class = good>, fillcolor="#7ebfee"] ;
137 -> 138 ;
139 [label=<chlorides &le; 0.073<br/>gini = 0.463<br/>samples = 11<br/>value = [7, 4]<br/>class = bad>, fillcolor="#f4c9aa"] ;
138 -> 139 ;
140 [label=<gini = 0.0<br/>samples = 4<br/>value = [0, 4]<br/>class = good>, fillcolor="#399de5"] ;
139 -> 140 ;
141 [label=<gini = 0.0<br/>samples = 7<br/>value = [7, 0]<br/>class = bad>, fillcolor="#e58139"] ;
139 -> 141 ;
142 [label=<gini = 0.0<br/>samples = 16<br/>value = [0, 16]<br/>class = good>, fillcolor="#399de5"] ;
138 -> 142 ;
143 [label=<volatile acidity &le; 0.27<br/>gini = 0.444<br/>samples = 57<br/>value = [38, 19]<br/>class = bad>, fillcolor="#f2c09c"] ;
137 -> 143 ;
144 [label=<gini = 0.0<br/>samples = 5<br/>value = [0, 5]<br/>class = good>, fillcolor="#399de5"] ;
143 -> 144 ;
145 [label=<fixed acidity &le; 10.7<br/>gini = 0.393<br/>samples = 52<br/>value = [38, 14]<br/>class = bad>, fillcolor="#efaf82"] ;
143 -> 145 ;
146 [label=<chlorides &le; 0.08<br/>gini = 0.308<br/>samples = 42<br/>value = [34, 8]<br/>class = bad>, fillcolor="#eb9f68"] ;
145 -> 146 ;
147 [label=<gini = 0.0<br/>samples = 13<br/>value = [13, 0]<br/>class = bad>, fillcolor="#e58139"] ;
146 -> 147 ;
148 [label=<pH &le; 3.315<br/>gini = 0.4<br/>samples = 29<br/>value = [21, 8]<br/>class = bad>, fillcolor="#efb184"] ;
146 -> 148 ;
149 [label=<total sulfur dioxide &le; 14.5<br/>gini = 0.33<br/>samples = 24<br/>value = [19, 5]<br/>class = bad>, fillcolor="#eca26d"] ;
148 -> 149 ;
150 [label=<gini = 0.0<br/>samples = 1<br/>value = [0, 1]<br/>class = good>, fillcolor="#399de5"] ;
149 -> 150 ;
151 [label=<residual sugar &le; 14.6<br/>gini = 0.287<br/>samples = 23<br/>value = [19, 4]<br/>class = bad>, fillcolor="#ea9c63"] ;
149 -> 151 ;
152 [label=<density &le; 0.997<br/>gini = 0.236<br/>samples = 22<br/>value = [19, 3]<br/>class = bad>, fillcolor="#e99558"] ;
151 -> 152 ;
153 [label=<sulphates &le; 1.17<br/>gini = 0.49<br/>samples = 7<br/>value = [4, 3]<br/>class = bad>, fillcolor="#f8e0ce"] ;
152 -> 153 ;
154 [label=<residual sugar &le; 2.25<br/>gini = 0.375<br/>samples = 4<br/>value = [1, 3]<br/>class = good>, fillcolor="#7bbeee"] ;
153 -> 154 ;
155 [label=<gini = 0.0<br/>samples = 3<br/>value = [0, 3]<br/>class = good>, fillcolor="#399de5"] ;
154 -> 155 ;
156 [label=<gini = 0.0<br/>samples = 1<br/>value = [1, 0]<br/>class = bad>, fillcolor="#e58139"] ;
154 -> 156 ;
157 [label=<gini = 0.0<br/>samples = 3<br/>value = [3, 0]<br/>class = bad>, fillcolor="#e58139"] ;
153 -> 157 ;
158 [label=<gini = 0.0<br/>samples = 15<br/>value = [15, 0]<br/>class = bad>, fillcolor="#e58139"] ;
152 -> 158 ;
159 [label=<gini = 0.0<br/>samples = 1<br/>value = [0, 1]<br/>class = good>, fillcolor="#399de5"] ;
151 -> 159 ;
160 [label=<pH &le; 3.415<br/>gini = 0.48<br/>samples = 5<br/>value = [2, 3]<br/>class = good>, fillcolor="#bddef6"] ;
148 -> 160 ;
161 [label=<gini = 0.0<br/>samples = 2<br/>value = [0, 2]<br/>class = good>, fillcolor="#399de5"] ;
160 -> 161 ;
162 [label=<chlorides &le; 0.087<br/>gini = 0.444<br/>samples = 3<br/>value = [2, 1]<br/>class = bad>, fillcolor="#f2c09c"] ;
160 -> 162 ;
163 [label=<gini = 0.0<br/>samples = 2<br/>value = [2, 0]<br/>class = bad>, fillcolor="#e58139"] ;
162 -> 163 ;
164 [label=<gini = 0.0<br/>samples = 1<br/>value = [0, 1]<br/>class = good>, fillcolor="#399de5"] ;
162 -> 164 ;
165 [label=<volatile acidity &le; 0.355<br/>gini = 0.48<br/>samples = 10<br/>value = [4, 6]<br/>class = good>, fillcolor="#bddef6"] ;
145 -> 165 ;
166 [label=<gini = 0.0<br/>samples = 5<br/>value = [0, 5]<br/>class = good>, fillcolor="#399de5"] ;
165 -> 166 ;
167 [label=<density &le; 0.999<br/>gini = 0.32<br/>samples = 5<br/>value = [4, 1]<br/>class = bad>, fillcolor="#eca06a"] ;
165 -> 167 ;
168 [label=<gini = 0.0<br/>samples = 1<br/>value = [0, 1]<br/>class = good>, fillcolor="#399de5"] ;
167 -> 168 ;
169 [label=<gini = 0.0<br/>samples = 4<br/>value = [4, 0]<br/>class = bad>, fillcolor="#e58139"] ;
167 -> 169 ;
170 [label=<pH &le; 3.48<br/>gini = 0.338<br/>samples = 102<br/>value = [22, 80]<br/>class = good>, fillcolor="#6fb8ec"] ;
136 -> 170 ;
171 [label=<total sulfur dioxide &le; 84.5<br/>gini = 0.271<br/>samples = 93<br/>value = [15, 78]<br/>class = good>, fillcolor="#5fb0ea"] ;
170 -> 171 ;
172 [label=<free sulfur dioxide &le; 28.5<br/>gini = 0.176<br/>samples = 82<br/>value = [8, 74]<br/>class = good>, fillcolor="#4ea8e8"] ;
171 -> 172 ;
173 [label=<density &le; 0.997<br/>gini = 0.129<br/>samples = 72<br/>value = [5, 67]<br/>class = good>, fillcolor="#48a4e7"] ;
172 -> 173 ;
174 [label=<residual sugar &le; 2.05<br/>gini = 0.355<br/>samples = 13<br/>value = [3, 10]<br/>class = good>, fillcolor="#74baed"] ;
173 -> 174 ;
175 [label=<citric acid &le; 0.5<br/>gini = 0.165<br/>samples = 11<br/>value = [1, 10]<br/>class = good>, fillcolor="#4da7e8"] ;
174 -> 175 ;
176 [label=<gini = 0.0<br/>samples = 10<br/>value = [0, 10]<br/>class = good>, fillcolor="#399de5"] ;
175 -> 176 ;
177 [label=<gini = 0.0<br/>samples = 1<br/>value = [1, 0]<br/>class = bad>, fillcolor="#e58139"] ;
175 -> 177 ;
178 [label=<gini = 0.0<br/>samples = 2<br/>value = [2, 0]<br/>class = bad>, fillcolor="#e58139"] ;
174 -> 178 ;
179 [label=<total sulfur dioxide &le; 16.5<br/>gini = 0.065<br/>samples = 59<br/>value = [2, 57]<br/>class = good>, fillcolor="#40a0e6"] ;
173 -> 179 ;
180 [label=<total sulfur dioxide &le; 14.5<br/>gini = 0.346<br/>samples = 9<br/>value = [2, 7]<br/>class = good>, fillcolor="#72b9ec"] ;
179 -> 180 ;
181 [label=<gini = 0.0<br/>samples = 6<br/>value = [0, 6]<br/>class = good>, fillcolor="#399de5"] ;
180 -> 181 ;
182 [label=<free sulfur dioxide &le; 6.5<br/>gini = 0.444<br/>samples = 3<br/>value = [2, 1]<br/>class = bad>, fillcolor="#f2c09c"] ;
180 -> 182 ;
183 [label=<gini = 0.0<br/>samples = 2<br/>value = [2, 0]<br/>class = bad>, fillcolor="#e58139"] ;
182 -> 183 ;
184 [label=<gini = 0.0<br/>samples = 1<br/>value = [0, 1]<br/>class = good>, fillcolor="#399de5"] ;
182 -> 184 ;
185 [label=<gini = 0.0<br/>samples = 50<br/>value = [0, 50]<br/>class = good>, fillcolor="#399de5"] ;
179 -> 185 ;
186 [label=<fixed acidity &le; 7.7<br/>gini = 0.42<br/>samples = 10<br/>value = [3, 7]<br/>class = good>, fillcolor="#8ec7f0"] ;
172 -> 186 ;
187 [label=<gini = 0.0<br/>samples = 6<br/>value = [0, 6]<br/>class = good>, fillcolor="#399de5"] ;
186 -> 187 ;
188 [label=<sulphates &le; 0.88<br/>gini = 0.375<br/>samples = 4<br/>value = [3, 1]<br/>class = bad>, fillcolor="#eeab7b"] ;
186 -> 188 ;
189 [label=<gini = 0.0<br/>samples = 3<br/>value = [3, 0]<br/>class = bad>, fillcolor="#e58139"] ;
188 -> 189 ;
190 [label=<gini = 0.0<br/>samples = 1<br/>value = [0, 1]<br/>class = good>, fillcolor="#399de5"] ;
188 -> 190 ;
191 [label=<residual sugar &le; 2.45<br/>gini = 0.463<br/>samples = 11<br/>value = [7, 4]<br/>class = bad>, fillcolor="#f4c9aa"] ;
171 -> 191 ;
192 [label=<gini = 0.0<br/>samples = 4<br/>value = [0, 4]<br/>class = good>, fillcolor="#399de5"] ;
191 -> 192 ;
193 [label=<gini = 0.0<br/>samples = 7<br/>value = [7, 0]<br/>class = bad>, fillcolor="#e58139"] ;
191 -> 193 ;
194 [label=<volatile acidity &le; 0.305<br/>gini = 0.346<br/>samples = 9<br/>value = [7, 2]<br/>class = bad>, fillcolor="#eca572"] ;
170 -> 194 ;
195 [label=<gini = 0.0<br/>samples = 2<br/>value = [0, 2]<br/>class = good>, fillcolor="#399de5"] ;
194 -> 195 ;
196 [label=<gini = 0.0<br/>samples = 7<br/>value = [7, 0]<br/>class = bad>, fillcolor="#e58139"] ;
194 -> 196 ;
197 [label=<alcohol &le; 10.35<br/>gini = 0.422<br/>samples = 106<br/>value = [74, 32]<br/>class = bad>, fillcolor="#f0b78f"] ;
135 -> 197 ;
198 [label=<fixed acidity &le; 11.0<br/>gini = 0.383<br/>samples = 97<br/>value = [72, 25]<br/>class = bad>, fillcolor="#eead7e"] ;
197 -> 198 ;
199 [label=<chlorides &le; 0.097<br/>gini = 0.359<br/>samples = 94<br/>value = [72, 22]<br/>class = bad>, fillcolor="#eda876"] ;
198 -> 199 ;
200 [label=<density &le; 0.997<br/>gini = 0.433<br/>samples = 63<br/>value = [43, 20]<br/>class = bad>, fillcolor="#f1bc95"] ;
199 -> 200 ;
201 [label=<density &le; 0.995<br/>gini = 0.219<br/>samples = 32<br/>value = [28, 4]<br/>class = bad>, fillcolor="#e99355"] ;
200 -> 201 ;
202 [label=<gini = 0.0<br/>samples = 1<br/>value = [0, 1]<br/>class = good>, fillcolor="#399de5"] ;
201 -> 202 ;
203 [label=<alcohol &le; 9.55<br/>gini = 0.175<br/>samples = 31<br/>value = [28, 3]<br/>class = bad>, fillcolor="#e88e4e"] ;
201 -> 203 ;
204 [label=<residual sugar &le; 1.85<br/>gini = 0.375<br/>samples = 12<br/>value = [9, 3]<br/>class = bad>, fillcolor="#eeab7b"] ;
203 -> 204 ;
205 [label=<gini = 0.0<br/>samples = 8<br/>value = [8, 0]<br/>class = bad>, fillcolor="#e58139"] ;
204 -> 205 ;
206 [label=<fixed acidity &le; 6.7<br/>gini = 0.375<br/>samples = 4<br/>value = [1, 3]<br/>class = good>, fillcolor="#7bbeee"] ;
204 -> 206 ;
207 [label=<gini = 0.0<br/>samples = 1<br/>value = [1, 0]<br/>class = bad>, fillcolor="#e58139"] ;
206 -> 207 ;
208 [label=<gini = 0.0<br/>samples = 3<br/>value = [0, 3]<br/>class = good>, fillcolor="#399de5"] ;
206 -> 208 ;
209 [label=<gini = 0.0<br/>samples = 19<br/>value = [19, 0]<br/>class = bad>, fillcolor="#e58139"] ;
203 -> 209 ;
210 [label=<free sulfur dioxide &le; 19.5<br/>gini = 0.499<br/>samples = 31<br/>value = [15, 16]<br/>class = good>, fillcolor="#f3f9fd"] ;
200 -> 210 ;
211 [label=<density &le; 0.998<br/>gini = 0.454<br/>samples = 23<br/>value = [8, 15]<br/>class = good>, fillcolor="#a3d1f3"] ;
210 -> 211 ;
212 [label=<total sulfur dioxide &le; 21.0<br/>gini = 0.305<br/>samples = 16<br/>value = [3, 13]<br/>class = good>, fillcolor="#67b4eb"] ;
211 -> 212 ;
213 [label=<free sulfur dioxide &le; 3.5<br/>gini = 0.444<br/>samples = 3<br/>value = [2, 1]<br/>class = bad>, fillcolor="#f2c09c"] ;
212 -> 213 ;
214 [label=<gini = 0.0<br/>samples = 1<br/>value = [0, 1]<br/>class = good>, fillcolor="#399de5"] ;
213 -> 214 ;
215 [label=<gini = 0.0<br/>samples = 2<br/>value = [2, 0]<br/>class = bad>, fillcolor="#e58139"] ;
213 -> 215 ;
216 [label=<sulphates &le; 0.66<br/>gini = 0.142<br/>samples = 13<br/>value = [1, 12]<br/>class = good>, fillcolor="#49a5e7"] ;
212 -> 216 ;
217 [label=<fixed acidity &le; 8.05<br/>gini = 0.5<br/>samples = 2<br/>value = [1, 1]<br/>class = bad>, fillcolor="#ffffff"] ;
216 -> 217 ;
218 [label=<gini = 0.0<br/>samples = 1<br/>value = [1, 0]<br/>class = bad>, fillcolor="#e58139"] ;
217 -> 218 ;
219 [label=<gini = 0.0<br/>samples = 1<br/>value = [0, 1]<br/>class = good>, fillcolor="#399de5"] ;
217 -> 219 ;
220 [label=<gini = 0.0<br/>samples = 11<br/>value = [0, 11]<br/>class = good>, fillcolor="#399de5"] ;
216 -> 220 ;
221 [label=<citric acid &le; 0.01<br/>gini = 0.408<br/>samples = 7<br/>value = [5, 2]<br/>class = bad>, fillcolor="#efb388"] ;
211 -> 221 ;
222 [label=<gini = 0.0<br/>samples = 2<br/>value = [0, 2]<br/>class = good>, fillcolor="#399de5"] ;
221 -> 222 ;
223 [label=<gini = 0.0<br/>samples = 5<br/>value = [5, 0]<br/>class = bad>, fillcolor="#e58139"] ;
221 -> 223 ;
224 [label=<citric acid &le; 0.305<br/>gini = 0.219<br/>samples = 8<br/>value = [7, 1]<br/>class = bad>, fillcolor="#e99355"] ;
210 -> 224 ;
225 [label=<gini = 0.0<br/>samples = 7<br/>value = [7, 0]<br/>class = bad>, fillcolor="#e58139"] ;
224 -> 225 ;
226 [label=<gini = 0.0<br/>samples = 1<br/>value = [0, 1]<br/>class = good>, fillcolor="#399de5"] ;
224 -> 226 ;
227 [label=<sulphates &le; 1.255<br/>gini = 0.121<br/>samples = 31<br/>value = [29, 2]<br/>class = bad>, fillcolor="#e78a47"] ;
199 -> 227 ;
228 [label=<gini = 0.0<br/>samples = 28<br/>value = [28, 0]<br/>class = bad>, fillcolor="#e58139"] ;
227 -> 228 ;
229 [label=<chlorides &le; 0.226<br/>gini = 0.444<br/>samples = 3<br/>value = [1, 2]<br/>class = good>, fillcolor="#9ccef2"] ;
227 -> 229 ;
230 [label=<gini = 0.0<br/>samples = 1<br/>value = [1, 0]<br/>class = bad>, fillcolor="#e58139"] ;
229 -> 230 ;
231 [label=<gini = 0.0<br/>samples = 2<br/>value = [0, 2]<br/>class = good>, fillcolor="#399de5"] ;
229 -> 231 ;
232 [label=<gini = 0.0<br/>samples = 3<br/>value = [0, 3]<br/>class = good>, fillcolor="#399de5"] ;
198 -> 232 ;
233 [label=<pH &le; 3.555<br/>gini = 0.346<br/>samples = 9<br/>value = [2, 7]<br/>class = good>, fillcolor="#72b9ec"] ;
197 -> 233 ;
234 [label=<chlorides &le; 0.086<br/>gini = 0.219<br/>samples = 8<br/>value = [1, 7]<br/>class = good>, fillcolor="#55abe9"] ;
233 -> 234 ;
235 [label=<gini = 0.0<br/>samples = 6<br/>value = [0, 6]<br/>class = good>, fillcolor="#399de5"] ;
234 -> 235 ;
236 [label=<total sulfur dioxide &le; 47.5<br/>gini = 0.5<br/>samples = 2<br/>value = [1, 1]<br/>class = bad>, fillcolor="#ffffff"] ;
234 -> 236 ;
237 [label=<gini = 0.0<br/>samples = 1<br/>value = [1, 0]<br/>class = bad>, fillcolor="#e58139"] ;
236 -> 237 ;
238 [label=<gini = 0.0<br/>samples = 1<br/>value = [0, 1]<br/>class = good>, fillcolor="#399de5"] ;
236 -> 238 ;
239 [label=<gini = 0.0<br/>samples = 1<br/>value = [1, 0]<br/>class = bad>, fillcolor="#e58139"] ;
233 -> 239 ;
240 [label=<sulphates &le; 0.585<br/>gini = 0.37<br/>samples = 473<br/>value = [116, 357]<br/>class = good>, fillcolor="#79bded"] ;
0 -> 240 [labeldistance=2.5, labelangle=-45, headlabel="False"] ;
241 [label=<alcohol &le; 11.45<br/>gini = 0.499<br/>samples = 129<br/>value = [61, 68]<br/>class = good>, fillcolor="#ebf5fc"] ;
240 -> 241 ;
242 [label=<free sulfur dioxide &le; 8.5<br/>gini = 0.448<br/>samples = 68<br/>value = [45, 23]<br/>class = bad>, fillcolor="#f2c19e"] ;
241 -> 242 ;
243 [label=<volatile acidity &le; 0.385<br/>gini = 0.32<br/>samples = 35<br/>value = [28, 7]<br/>class = bad>, fillcolor="#eca06a"] ;
242 -> 243 ;
244 [label=<total sulfur dioxide &le; 9.0<br/>gini = 0.375<br/>samples = 4<br/>value = [1, 3]<br/>class = good>, fillcolor="#7bbeee"] ;
243 -> 244 ;
245 [label=<gini = 0.0<br/>samples = 1<br/>value = [1, 0]<br/>class = bad>, fillcolor="#e58139"] ;
244 -> 245 ;
246 [label=<gini = 0.0<br/>samples = 3<br/>value = [0, 3]<br/>class = good>, fillcolor="#399de5"] ;
244 -> 246 ;
247 [label=<alcohol &le; 10.65<br/>gini = 0.225<br/>samples = 31<br/>value = [27, 4]<br/>class = bad>, fillcolor="#e99456"] ;
243 -> 247 ;
248 [label=<gini = 0.0<br/>samples = 1<br/>value = [0, 1]<br/>class = good>, fillcolor="#399de5"] ;
247 -> 248 ;
249 [label=<volatile acidity &le; 0.585<br/>gini = 0.18<br/>samples = 30<br/>value = [27, 3]<br/>class = bad>, fillcolor="#e88f4f"] ;
247 -> 249 ;
250 [label=<volatile acidity &le; 0.48<br/>gini = 0.42<br/>samples = 10<br/>value = [7, 3]<br/>class = bad>, fillcolor="#f0b78e"] ;
249 -> 250 ;
251 [label=<gini = 0.0<br/>samples = 6<br/>value = [6, 0]<br/>class = bad>, fillcolor="#e58139"] ;
250 -> 251 ;
252 [label=<chlorides &le; 0.057<br/>gini = 0.375<br/>samples = 4<br/>value = [1, 3]<br/>class = good>, fillcolor="#7bbeee"] ;
250 -> 252 ;
253 [label=<gini = 0.0<br/>samples = 1<br/>value = [1, 0]<br/>class = bad>, fillcolor="#e58139"] ;
252 -> 253 ;
254 [label=<gini = 0.0<br/>samples = 3<br/>value = [0, 3]<br/>class = good>, fillcolor="#399de5"] ;
252 -> 254 ;
255 [label=<gini = 0.0<br/>samples = 20<br/>value = [20, 0]<br/>class = bad>, fillcolor="#e58139"] ;
249 -> 255 ;
256 [label=<alcohol &le; 10.85<br/>gini = 0.5<br/>samples = 33<br/>value = [17, 16]<br/>class = bad>, fillcolor="#fdf8f3"] ;
242 -> 256 ;
257 [label=<volatile acidity &le; 0.575<br/>gini = 0.32<br/>samples = 10<br/>value = [2, 8]<br/>class = good>, fillcolor="#6ab6ec"] ;
256 -> 257 ;
258 [label=<gini = 0.0<br/>samples = 2<br/>value = [2, 0]<br/>class = bad>, fillcolor="#e58139"] ;
257 -> 258 ;
259 [label=<gini = 0.0<br/>samples = 8<br/>value = [0, 8]<br/>class = good>, fillcolor="#399de5"] ;
257 -> 259 ;
260 [label=<free sulfur dioxide &le; 28.5<br/>gini = 0.454<br/>samples = 23<br/>value = [15, 8]<br/>class = bad>, fillcolor="#f3c4a3"] ;
256 -> 260 ;
261 [label=<sulphates &le; 0.535<br/>gini = 0.408<br/>samples = 21<br/>value = [15, 6]<br/>class = bad>, fillcolor="#efb388"] ;
260 -> 261 ;
262 [label=<total sulfur dioxide &le; 40.0<br/>gini = 0.496<br/>samples = 11<br/>value = [6, 5]<br/>class = bad>, fillcolor="#fbeade"] ;
261 -> 262 ;
263 [label=<alcohol &le; 11.35<br/>gini = 0.32<br/>samples = 5<br/>value = [1, 4]<br/>class = good>, fillcolor="#6ab6ec"] ;
262 -> 263 ;
264 [label=<gini = 0.0<br/>samples = 4<br/>value = [0, 4]<br/>class = good>, fillcolor="#399de5"] ;
263 -> 264 ;
265 [label=<gini = 0.0<br/>samples = 1<br/>value = [1, 0]<br/>class = bad>, fillcolor="#e58139"] ;
263 -> 265 ;
266 [label=<chlorides &le; 0.046<br/>gini = 0.278<br/>samples = 6<br/>value = [5, 1]<br/>class = bad>, fillcolor="#ea9a61"] ;
262 -> 266 ;
267 [label=<gini = 0.0<br/>samples = 1<br/>value = [0, 1]<br/>class = good>, fillcolor="#399de5"] ;
266 -> 267 ;
268 [label=<gini = 0.0<br/>samples = 5<br/>value = [5, 0]<br/>class = bad>, fillcolor="#e58139"] ;
266 -> 268 ;
269 [label=<total sulfur dioxide &le; 98.5<br/>gini = 0.18<br/>samples = 10<br/>value = [9, 1]<br/>class = bad>, fillcolor="#e88f4f"] ;
261 -> 269 ;
270 [label=<gini = 0.0<br/>samples = 9<br/>value = [9, 0]<br/>class = bad>, fillcolor="#e58139"] ;
269 -> 270 ;
271 [label=<gini = 0.0<br/>samples = 1<br/>value = [0, 1]<br/>class = good>, fillcolor="#399de5"] ;
269 -> 271 ;
272 [label=<gini = 0.0<br/>samples = 2<br/>value = [0, 2]<br/>class = good>, fillcolor="#399de5"] ;
260 -> 272 ;
273 [label=<volatile acidity &le; 0.515<br/>gini = 0.387<br/>samples = 61<br/>value = [16, 45]<br/>class = good>, fillcolor="#7fc0ee"] ;
241 -> 273 ;
274 [label=<residual sugar &le; 6.25<br/>gini = 0.064<br/>samples = 30<br/>value = [1, 29]<br/>class = good>, fillcolor="#40a0e6"] ;
273 -> 274 ;
275 [label=<gini = 0.0<br/>samples = 26<br/>value = [0, 26]<br/>class = good>, fillcolor="#399de5"] ;
274 -> 275 ;
276 [label=<sulphates &le; 0.555<br/>gini = 0.375<br/>samples = 4<br/>value = [1, 3]<br/>class = good>, fillcolor="#7bbeee"] ;
274 -> 276 ;
277 [label=<gini = 0.0<br/>samples = 3<br/>value = [0, 3]<br/>class = good>, fillcolor="#399de5"] ;
276 -> 277 ;
278 [label=<gini = 0.0<br/>samples = 1<br/>value = [1, 0]<br/>class = bad>, fillcolor="#e58139"] ;
276 -> 278 ;
279 [label=<residual sugar &le; 2.35<br/>gini = 0.499<br/>samples = 31<br/>value = [15, 16]<br/>class = good>, fillcolor="#f3f9fd"] ;
273 -> 279 ;
280 [label=<chlorides &le; 0.058<br/>gini = 0.388<br/>samples = 19<br/>value = [5, 14]<br/>class = good>, fillcolor="#80c0ee"] ;
279 -> 280 ;
281 [label=<volatile acidity &le; 0.67<br/>gini = 0.32<br/>samples = 5<br/>value = [4, 1]<br/>class = bad>, fillcolor="#eca06a"] ;
280 -> 281 ;
282 [label=<gini = 0.0<br/>samples = 4<br/>value = [4, 0]<br/>class = bad>, fillcolor="#e58139"] ;
281 -> 282 ;
283 [label=<gini = 0.0<br/>samples = 1<br/>value = [0, 1]<br/>class = good>, fillcolor="#399de5"] ;
281 -> 283 ;
284 [label=<total sulfur dioxide &le; 50.0<br/>gini = 0.133<br/>samples = 14<br/>value = [1, 13]<br/>class = good>, fillcolor="#48a5e7"] ;
280 -> 284 ;
285 [label=<gini = 0.0<br/>samples = 13<br/>value = [0, 13]<br/>class = good>, fillcolor="#399de5"] ;
284 -> 285 ;
286 [label=<gini = 0.0<br/>samples = 1<br/>value = [1, 0]<br/>class = bad>, fillcolor="#e58139"] ;
284 -> 286 ;
287 [label=<residual sugar &le; 4.45<br/>gini = 0.278<br/>samples = 12<br/>value = [10, 2]<br/>class = bad>, fillcolor="#ea9a61"] ;
279 -> 287 ;
288 [label=<sulphates &le; 0.495<br/>gini = 0.165<br/>samples = 11<br/>value = [10, 1]<br/>class = bad>, fillcolor="#e88e4d"] ;
287 -> 288 ;
289 [label=<gini = 0.0<br/>samples = 1<br/>value = [0, 1]<br/>class = good>, fillcolor="#399de5"] ;
288 -> 289 ;
290 [label=<gini = 0.0<br/>samples = 10<br/>value = [10, 0]<br/>class = bad>, fillcolor="#e58139"] ;
288 -> 290 ;
291 [label=<gini = 0.0<br/>samples = 1<br/>value = [0, 1]<br/>class = good>, fillcolor="#399de5"] ;
287 -> 291 ;
292 [label=<total sulfur dioxide &le; 66.5<br/>gini = 0.269<br/>samples = 344<br/>value = [55, 289]<br/>class = good>, fillcolor="#5fb0ea"] ;
240 -> 292 ;
293 [label=<pH &le; 2.935<br/>gini = 0.189<br/>samples = 293<br/>value = [31, 262]<br/>class = good>, fillcolor="#50a9e8"] ;
292 -> 293 ;
294 [label=<gini = 0.0<br/>samples = 3<br/>value = [3, 0]<br/>class = bad>, fillcolor="#e58139"] ;
293 -> 294 ;
295 [label=<alcohol &le; 11.25<br/>gini = 0.174<br/>samples = 290<br/>value = [28, 262]<br/>class = good>, fillcolor="#4ea7e8"] ;
293 -> 295 ;
296 [label=<chlorides &le; 0.098<br/>gini = 0.289<br/>samples = 131<br/>value = [23, 108]<br/>class = good>, fillcolor="#63b2eb"] ;
295 -> 296 ;
297 [label=<fixed acidity &le; 12.95<br/>gini = 0.224<br/>samples = 117<br/>value = [15, 102]<br/>class = good>, fillcolor="#56abe9"] ;
296 -> 297 ;
298 [label=<chlorides &le; 0.056<br/>gini = 0.201<br/>samples = 115<br/>value = [13, 102]<br/>class = good>, fillcolor="#52a9e8"] ;
297 -> 298 ;
299 [label=<chlorides &le; 0.055<br/>gini = 0.48<br/>samples = 10<br/>value = [4, 6]<br/>class = good>, fillcolor="#bddef6"] ;
298 -> 299 ;
300 [label=<sulphates &le; 0.62<br/>gini = 0.245<br/>samples = 7<br/>value = [1, 6]<br/>class = good>, fillcolor="#5aade9"] ;
299 -> 300 ;
301 [label=<gini = 0.0<br/>samples = 1<br/>value = [1, 0]<br/>class = bad>, fillcolor="#e58139"] ;
300 -> 301 ;
302 [label=<gini = 0.0<br/>samples = 6<br/>value = [0, 6]<br/>class = good>, fillcolor="#399de5"] ;
300 -> 302 ;
303 [label=<gini = 0.0<br/>samples = 3<br/>value = [3, 0]<br/>class = bad>, fillcolor="#e58139"] ;
299 -> 303 ;
304 [label=<total sulfur dioxide &le; 51.5<br/>gini = 0.157<br/>samples = 105<br/>value = [9, 96]<br/>class = good>, fillcolor="#4ca6e7"] ;
298 -> 304 ;
305 [label=<volatile acidity &le; 0.185<br/>gini = 0.086<br/>samples = 89<br/>value = [4, 85]<br/>class = good>, fillcolor="#42a2e6"] ;
304 -> 305 ;
306 [label=<gini = 0.0<br/>samples = 1<br/>value = [1, 0]<br/>class = bad>, fillcolor="#e58139"] ;
305 -> 306 ;
307 [label=<pH &le; 3.085<br/>gini = 0.066<br/>samples = 88<br/>value = [3, 85]<br/>class = good>, fillcolor="#40a0e6"] ;
305 -> 307 ;
308 [label=<chlorides &le; 0.062<br/>gini = 0.5<br/>samples = 2<br/>value = [1, 1]<br/>class = bad>, fillcolor="#ffffff"] ;
307 -> 308 ;
309 [label=<gini = 0.0<br/>samples = 1<br/>value = [0, 1]<br/>class = good>, fillcolor="#399de5"] ;
308 -> 309 ;
310 [label=<gini = 0.0<br/>samples = 1<br/>value = [1, 0]<br/>class = bad>, fillcolor="#e58139"] ;
308 -> 310 ;
311 [label=<volatile acidity &le; 0.637<br/>gini = 0.045<br/>samples = 86<br/>value = [2, 84]<br/>class = good>, fillcolor="#3e9fe6"] ;
307 -> 311 ;
312 [label=<gini = 0.0<br/>samples = 76<br/>value = [0, 76]<br/>class = good>, fillcolor="#399de5"] ;
311 -> 312 ;
313 [label=<alcohol &le; 10.65<br/>gini = 0.32<br/>samples = 10<br/>value = [2, 8]<br/>class = good>, fillcolor="#6ab6ec"] ;
311 -> 313 ;
314 [label=<gini = 0.0<br/>samples = 1<br/>value = [1, 0]<br/>class = bad>, fillcolor="#e58139"] ;
313 -> 314 ;
315 [label=<density &le; 0.996<br/>gini = 0.198<br/>samples = 9<br/>value = [1, 8]<br/>class = good>, fillcolor="#52a9e8"] ;
313 -> 315 ;
316 [label=<gini = 0.0<br/>samples = 6<br/>value = [0, 6]<br/>class = good>, fillcolor="#399de5"] ;
315 -> 316 ;
317 [label=<citric acid &le; 0.075<br/>gini = 0.444<br/>samples = 3<br/>value = [1, 2]<br/>class = good>, fillcolor="#9ccef2"] ;
315 -> 317 ;
318 [label=<gini = 0.0<br/>samples = 1<br/>value = [1, 0]<br/>class = bad>, fillcolor="#e58139"] ;
317 -> 318 ;
319 [label=<gini = 0.0<br/>samples = 2<br/>value = [0, 2]<br/>class = good>, fillcolor="#399de5"] ;
317 -> 319 ;
320 [label=<pH &le; 3.325<br/>gini = 0.43<br/>samples = 16<br/>value = [5, 11]<br/>class = good>, fillcolor="#93caf1"] ;
304 -> 320 ;
321 [label=<free sulfur dioxide &le; 26.0<br/>gini = 0.444<br/>samples = 6<br/>value = [4, 2]<br/>class = bad>, fillcolor="#f2c09c"] ;
320 -> 321 ;
322 [label=<gini = 0.0<br/>samples = 2<br/>value = [0, 2]<br/>class = good>, fillcolor="#399de5"] ;
321 -> 322 ;
323 [label=<gini = 0.0<br/>samples = 4<br/>value = [4, 0]<br/>class = bad>, fillcolor="#e58139"] ;
321 -> 323 ;
324 [label=<sulphates &le; 0.95<br/>gini = 0.18<br/>samples = 10<br/>value = [1, 9]<br/>class = good>, fillcolor="#4fa8e8"] ;
320 -> 324 ;
325 [label=<gini = 0.0<br/>samples = 9<br/>value = [0, 9]<br/>class = good>, fillcolor="#399de5"] ;
324 -> 325 ;
326 [label=<gini = 0.0<br/>samples = 1<br/>value = [1, 0]<br/>class = bad>, fillcolor="#e58139"] ;
324 -> 326 ;
327 [label=<gini = 0.0<br/>samples = 2<br/>value = [2, 0]<br/>class = bad>, fillcolor="#e58139"] ;
297 -> 327 ;
328 [label=<pH &le; 3.215<br/>gini = 0.49<br/>samples = 14<br/>value = [8, 6]<br/>class = bad>, fillcolor="#f8e0ce"] ;
296 -> 328 ;
329 [label=<gini = 0.0<br/>samples = 4<br/>value = [0, 4]<br/>class = good>, fillcolor="#399de5"] ;
328 -> 329 ;
330 [label=<sulphates &le; 0.75<br/>gini = 0.32<br/>samples = 10<br/>value = [8, 2]<br/>class = bad>, fillcolor="#eca06a"] ;
328 -> 330 ;
331 [label=<gini = 0.0<br/>samples = 8<br/>value = [8, 0]<br/>class = bad>, fillcolor="#e58139"] ;
330 -> 331 ;
332 [label=<gini = 0.0<br/>samples = 2<br/>value = [0, 2]<br/>class = good>, fillcolor="#399de5"] ;
330 -> 332 ;
333 [label=<pH &le; 3.395<br/>gini = 0.061<br/>samples = 159<br/>value = [5, 154]<br/>class = good>, fillcolor="#3fa0e6"] ;
295 -> 333 ;
334 [label=<residual sugar &le; 4.4<br/>gini = 0.017<br/>samples = 117<br/>value = [1, 116]<br/>class = good>, fillcolor="#3b9ee5"] ;
333 -> 334 ;
335 [label=<gini = 0.0<br/>samples = 108<br/>value = [0, 108]<br/>class = good>, fillcolor="#399de5"] ;
334 -> 335 ;
336 [label=<chlorides &le; 0.102<br/>gini = 0.198<br/>samples = 9<br/>value = [1, 8]<br/>class = good>, fillcolor="#52a9e8"] ;
334 -> 336 ;
337 [label=<gini = 0.0<br/>samples = 8<br/>value = [0, 8]<br/>class = good>, fillcolor="#399de5"] ;
336 -> 337 ;
338 [label=<gini = 0.0<br/>samples = 1<br/>value = [1, 0]<br/>class = bad>, fillcolor="#e58139"] ;
336 -> 338 ;
339 [label=<pH &le; 3.415<br/>gini = 0.172<br/>samples = 42<br/>value = [4, 38]<br/>class = good>, fillcolor="#4ea7e8"] ;
333 -> 339 ;
340 [label=<sulphates &le; 0.705<br/>gini = 0.49<br/>samples = 7<br/>value = [3, 4]<br/>class = good>, fillcolor="#cee6f8"] ;
339 -> 340 ;
341 [label=<gini = 0.0<br/>samples = 3<br/>value = [3, 0]<br/>class = bad>, fillcolor="#e58139"] ;
340 -> 341 ;
342 [label=<gini = 0.0<br/>samples = 4<br/>value = [0, 4]<br/>class = good>, fillcolor="#399de5"] ;
340 -> 342 ;
343 [label=<residual sugar &le; 2.45<br/>gini = 0.056<br/>samples = 35<br/>value = [1, 34]<br/>class = good>, fillcolor="#3fa0e6"] ;
339 -> 343 ;
344 [label=<gini = 0.0<br/>samples = 27<br/>value = [0, 27]<br/>class = good>, fillcolor="#399de5"] ;
343 -> 344 ;
345 [label=<pH &le; 3.565<br/>gini = 0.219<br/>samples = 8<br/>value = [1, 7]<br/>class = good>, fillcolor="#55abe9"] ;
343 -> 345 ;
346 [label=<gini = 0.0<br/>samples = 7<br/>value = [0, 7]<br/>class = good>, fillcolor="#399de5"] ;
345 -> 346 ;
347 [label=<gini = 0.0<br/>samples = 1<br/>value = [1, 0]<br/>class = bad>, fillcolor="#e58139"] ;
345 -> 347 ;
348 [label=<alcohol &le; 11.55<br/>gini = 0.498<br/>samples = 51<br/>value = [24, 27]<br/>class = good>, fillcolor="#e9f4fc"] ;
292 -> 348 ;
349 [label=<pH &le; 3.325<br/>gini = 0.428<br/>samples = 29<br/>value = [20, 9]<br/>class = bad>, fillcolor="#f1ba92"] ;
348 -> 349 ;
350 [label=<free sulfur dioxide &le; 38.5<br/>gini = 0.245<br/>samples = 7<br/>value = [1, 6]<br/>class = good>, fillcolor="#5aade9"] ;
349 -> 350 ;
351 [label=<gini = 0.0<br/>samples = 6<br/>value = [0, 6]<br/>class = good>, fillcolor="#399de5"] ;
350 -> 351 ;
352 [label=<gini = 0.0<br/>samples = 1<br/>value = [1, 0]<br/>class = bad>, fillcolor="#e58139"] ;
350 -> 352 ;
353 [label=<sulphates &le; 0.605<br/>gini = 0.236<br/>samples = 22<br/>value = [19, 3]<br/>class = bad>, fillcolor="#e99558"] ;
349 -> 353 ;
354 [label=<gini = 0.0<br/>samples = 1<br/>value = [0, 1]<br/>class = good>, fillcolor="#399de5"] ;
353 -> 354 ;
355 [label=<citric acid &le; 0.445<br/>gini = 0.172<br/>samples = 21<br/>value = [19, 2]<br/>class = bad>, fillcolor="#e88e4e"] ;
353 -> 355 ;
356 [label=<free sulfur dioxide &le; 50.5<br/>gini = 0.095<br/>samples = 20<br/>value = [19, 1]<br/>class = bad>, fillcolor="#e68843"] ;
355 -> 356 ;
357 [label=<gini = 0.0<br/>samples = 19<br/>value = [19, 0]<br/>class = bad>, fillcolor="#e58139"] ;
356 -> 357 ;
358 [label=<gini = 0.0<br/>samples = 1<br/>value = [0, 1]<br/>class = good>, fillcolor="#399de5"] ;
356 -> 358 ;
359 [label=<gini = 0.0<br/>samples = 1<br/>value = [0, 1]<br/>class = good>, fillcolor="#399de5"] ;
355 -> 359 ;
360 [label=<chlorides &le; 0.091<br/>gini = 0.298<br/>samples = 22<br/>value = [4, 18]<br/>class = good>, fillcolor="#65b3eb"] ;
348 -> 360 ;
361 [label=<pH &le; 3.595<br/>gini = 0.1<br/>samples = 19<br/>value = [1, 18]<br/>class = good>, fillcolor="#44a2e6"] ;
360 -> 361 ;
362 [label=<gini = 0.0<br/>samples = 17<br/>value = [0, 17]<br/>class = good>, fillcolor="#399de5"] ;
361 -> 362 ;
363 [label=<total sulfur dioxide &le; 93.5<br/>gini = 0.5<br/>samples = 2<br/>value = [1, 1]<br/>class = bad>, fillcolor="#ffffff"] ;
361 -> 363 ;
364 [label=<gini = 0.0<br/>samples = 1<br/>value = [0, 1]<br/>class = good>, fillcolor="#399de5"] ;
363 -> 364 ;
365 [label=<gini = 0.0<br/>samples = 1<br/>value = [1, 0]<br/>class = bad>, fillcolor="#e58139"] ;
363 -> 365 ;
366 [label=<gini = 0.0<br/>samples = 3<br/>value = [3, 0]<br/>class = bad>, fillcolor="#e58139"] ;
360 -> 366 ;
}
